//Numpy array shape [32, 25]
//Min -1.664535999298
//Max 0.969757497311
//Number of zeros 0

#ifndef W3_H_
#define W3_H_

#ifndef __SYNTHESIS__
model_1_weight_t w3[800];
#else
model_1_weight_t w3[800] = {-0.1321953237, 0.0262578111, 0.3727203012, 0.4656927586, 0.1542634815, 0.1489892900, 0.0659171790, 0.0787711367, 0.2671044171, 0.1196639463, 0.2837644219, 0.0977361798, -0.6402886510, -0.2281341851, 0.2641755044, 0.3912901878, -0.2675770223, -0.1686668992, 0.1033127978, 0.2382000536, 0.1972893029, 0.1824834347, 0.4300831854, 0.0121985180, -0.2915036678, 0.1302060485, -0.0872822478, -0.1674512029, 0.2309783548, 0.2426268905, -0.0050104833, 0.1457894593, -0.0368882827, -0.3235350251, -0.2999589145, -0.2272523344, -0.0203718822, 0.3954611719, 0.9697574973, -0.2278721929, -0.1244557798, -0.3978772461, -0.9304681420, 0.4285436273, 0.4582181275, -0.1688319445, -0.1639458984, 0.1927783936, 0.4581580162, 0.0420704894, 0.0932144746, 0.1216737628, 0.2419987321, 0.0332388021, 0.1757947356, 0.0905099958, 0.1537496746, -0.0147927748, -0.0218552668, -0.3057996929, 0.0768927261, 0.0445474498, 0.6235290170, -0.0031994367, -0.5604413748, 0.1437373906, 0.7785062194, 0.2581039965, -1.3060660362, -0.9359761477, 0.1313066483, 0.2226739526, 0.1145023629, -0.8827522993, -1.4744324684, -0.3498829007, 0.1982852668, 0.8087888956, 0.2826325893, 0.0579344854, -0.2620314360, -0.5196465254, 0.3374501467, 0.4602567255, 0.8325794935, -0.2526785433, -0.5297474265, 0.0891780332, 0.4569223225, 0.1640330702, -0.2624368072, -0.2300233096, -0.1344483644, 0.0731752887, 0.2297410816, 0.0051549105, 0.0552186333, -0.1004990265, -0.0331290029, 0.0295102205, -0.4104378223, -0.1887753457, 0.0221659467, 0.4987010956, 0.6646966338, 0.1565638930, -0.5966449976, -0.9373193383, 0.7830361128, 0.4403147697, -0.6128104329, -0.2592174411, 0.3380127847, 0.3937481642, -0.0024161618, -0.5255206227, -0.1889982074, -0.1975869238, -0.2929916084, -0.1122249439, -0.0892345831, -0.0878520086, -0.3458719254, -0.4363229573, -0.5519750714, 0.0015178720, 0.1900181174, 0.8456268907, 0.8051640987, 0.4056041241, 0.1735887676, -0.2184249759, -0.5819457769, -0.5666922331, -0.0024848618, -0.0190991759, -0.3967780173, 0.0466454476, 0.2629735172, -0.1819952577, -0.2427657098, 0.2713449895, 0.3171916306, -0.2406158149, -0.1736602187, -0.1253920346, -0.3992915452, -0.4223202765, -0.0833160281, 0.0287787467, -0.0004906380, -0.0721386150, 0.4717203081, 0.4151257277, 0.1134658903, 0.4126382172, 0.2989083230, 0.2625517249, -0.0371667705, -0.1147551611, 0.2320760489, 0.8234837651, 0.4410088956, -0.1475348473, -0.6036967635, 0.4680833519, 0.5190050006, 0.3834296763, -0.0090192445, 0.1570493281, 0.1180869415, 0.1152758822, 0.5929483175, 0.7174274325, 0.2266077250, -0.7601578832, -0.4004188180, -0.4216754436, -0.3766365051, 0.0847707391, 0.1663940996, -0.4284264147, -0.7034857273, 0.0673264489, 0.3879362941, 0.5279510617, 0.6243224740, 0.2700999379, 0.1663061231, 0.2216466665, 0.0400182679, 0.3832805455, 0.1975113153, 0.1837486476, 0.2669180334, -0.2296106815, -0.0405817218, 0.0619750991, 0.2412073463, 0.1367445141, -0.4228065014, -0.4474465549, -0.0577333868, 0.2780841887, 0.2695462108, -0.9285209179, -0.1711932421, 0.3522871137, 0.0083786044, -0.4905598462, -0.0858628452, -0.1534242630, -0.1589790583, 0.0295526106, 0.3405478895, -0.1020767763, -0.3022498190, 0.1456549764, 0.2232180387, 0.4233592451, 0.2941934168, 0.4753898978, 0.2005553842, 0.0754629076, -0.1151055768, 0.0851872414, 0.4510521293, 0.2530427575, -0.0645128712, -0.4296720326, 0.6074730754, 0.3332020342, 0.0429509953, 0.2875653505, -0.3129656017, -0.2711919844, 0.5850228667, 0.2781071961, -0.1716520190, -0.0870282874, -0.9419053197, -0.6595116258, 0.0806259960, -0.0225259494, 0.0535665378, 0.6003513336, 0.2141665518, 0.0643602982, -0.3395541608, 0.0895809978, -0.0326671749, 0.0598993562, 0.3899474740, 0.4753292799, -0.1028557122, 0.2645263970, 0.2290994227, 0.3850395381, 0.5590288639, 0.3988827169, 0.1858360320, 0.1963612884, 0.1071364209, 0.0509783514, 0.2773157656, -0.4196450114, -0.0319137871, -0.3279685676, -0.0943288654, -0.3090723455, 0.3845640123, -0.2278328538, -0.2308174074, 0.3564885259, 0.5359396935, 0.6593741179, 0.7244511247, 0.3892965317, -0.0122903632, 0.0846261308, -0.0503305495, 0.3142047226, 0.0448150560, -0.3612175584, -0.3825772703, -0.4289705157, -0.0028209523, 0.6388123631, -0.0821656585, -0.5311870575, 0.0627095699, 0.0484270863, 0.4636774659, -0.2325832397, -0.1729995906, 0.2595534325, 0.3258240521, 0.2966907024, -0.0113554802, -0.4050278664, -0.1882369220, -0.2638380826, 0.0271520633, -0.2510312498, -0.3310571909, -0.3287833035, -0.0563375838, -0.2218740880, -0.2305509597, 0.1484591961, -0.1143571883, -0.3350762427, 0.1293473691, 0.2702737451, -0.1867524981, 0.4658368528, 0.5235997438, 0.3673892319, 0.0485283211, 0.4858422577, 0.4248403907, 0.2393486053, 0.3086640537, 0.2998295128, 0.4658490121, 0.3181918263, 0.1629714072, 0.2792575359, 0.2041894794, 0.3045247793, 0.1894057393, 0.1777637303, 0.2046992332, -0.2303816825, -0.3285609484, -0.2005657256, -0.0894974768, 0.0039580669, -0.3946360350, 0.0217008702, -0.2187547088, 0.0100081731, 0.2241259962, -0.0261954330, -0.3747816086, 0.3975528479, 0.5907246470, 0.1769239753, 0.2355496138, 0.0155065227, 0.3431790471, 0.4764317572, 0.5628346205, 0.0917332619, 0.0121014351, -0.0786723793, -0.3850760460, -0.2089607418, -0.0907659382, -0.2159833163, 0.3090239465, 0.2587705553, -0.0990736857, -0.3189074695, -0.0913707688, -0.9689351320, -0.0975981355, -0.6789388061, -0.1520569623, 0.3740195334, 0.0295841675, -0.0391487926, 0.2455908507, 0.1165297106, -0.1277416497, 0.1566148996, -0.0255334172, 0.2147516459, 0.0207568854, 0.1305226535, 0.2530024946, 0.1021889970, -0.2890299261, 0.5045839548, 0.5338419676, 0.2786976695, 0.2195026875, 0.3583829105, 0.3027630746, 0.3368844688, 0.3602015078, -0.4474029839, -0.2459610850, -0.0022933446, 0.5392432213, -0.1372981519, 0.2823673785, 0.2933939397, -0.3890511692, -0.4397380650, -0.0082751196, 0.0546557084, 0.1213067025, 0.2432582974, 0.1731278896, -0.2232661992, 0.2946729064, 0.0751654431, -0.1478282362, 0.1814046651, -0.3572640121, 0.1081090271, 0.3093836308, -0.2163762301, -0.4195778072, -0.0139961587, -0.0372829922, 0.5700930357, -0.1635074914, -1.6645359993, 0.1637501866, 0.2636156082, 0.0460905805, -1.1977512836, -1.2313610315, 0.2449113876, 0.1456089020, -0.0305576362, 0.1688906401, 0.0308208559, -0.0356551483, 0.3590230048, 0.4421612322, 0.2581668794, 0.1510573328, 0.1268350780, 0.2513462007, 0.3318344653, 0.4288347363, -0.3399714530, -0.1367199421, 0.3326911330, 0.0812391937, 0.1622238159, -0.5545871854, -0.1864859015, -0.4639502764, -0.1299473643, 0.2810035050, 0.0067354697, 0.1305193156, -0.1083959267, 0.1509725153, -0.1087263301, -0.9753810167, -0.5722028613, -0.3961568177, 0.3795686960, -0.0838375092, -0.6063733697, -0.1073167622, 0.3153135777, 0.1249288768, 0.1665942222, -0.3052460849, 0.3870926499, 0.2349863499, 0.3252349794, 0.3028997481, 0.4341225326, -0.0480444580, -0.0491625778, 0.1151669547, -0.2269481719, -0.0711075217, -0.2272474766, -0.1494032443, 0.4119503498, 0.2193643153, -0.1036339328, 0.5720959902, -0.1561366916, -0.2908535302, 0.2200896591, -0.1118629426, -0.2329720706, 0.5006096363, 0.7268171310, 0.2284726501, -0.1965322644, 0.1559180319, 0.0982831717, 0.4989922345, 0.0756631568, -0.2908123136, 0.5442407727, -0.0080190282, 0.3453831673, -0.0312253777, 0.4550237358, 0.0283661895, 0.4107184708, 0.2511184514, 0.1863651723, 0.1201649234, -1.3351522684, -1.5949569941, -0.7164435983, 0.1194605455, 0.0836077780, -0.1787657142, 0.0374644101, 0.2660052776, -0.0039601652, 0.0014815230, 0.1557523012, 0.0180713311, 0.0581188127, -0.1015961841, -0.1038858518, 0.0140893618, -0.1211230084, 0.0370765924, 0.2220390588, 0.2188036293, 0.3508160412, 0.1848585904, 0.2474635094, 0.0879799798, 0.1210584268, -0.2818914950, 0.0560065657, 0.4755598605, 0.3557217419, 0.5241195560, 0.3052611351, 0.4442336261, -0.0555032454, 0.0402125083, 0.1691685319, -0.0368339047, -0.4991497397, -0.0975509435, -0.1196781546, 0.4425220788, 0.1477538049, 0.2473740429, 0.3447709978, 0.0332161635, -0.3382853270, 0.3330940604, 0.1582208127, -0.1845710874, 0.0807486922, -0.1849310249, -0.7863547802, -0.6467521191, 0.3319985867, -0.0991043076, -0.2735640705, -0.2108092904, 0.3177038431, 0.2864562273, -0.0202831719, -0.0276264437, 0.2065893859, 0.1934956312, 0.4069381356, 0.1039652377, 0.0877224952, 0.3119544387, 0.0673038140, 0.3631537259, 0.4472458065, 0.3547955155, -0.2156476378, 0.0781988800, -0.0469053872, 0.1441087276, -0.2409378588, -0.2559790909, 0.0190821644, 0.0709646046, -0.1396029145, 0.0568583719, 0.2099050283, -0.0607187003, -0.2052363604, 0.1009934470, 0.0300191641, 0.5654244423, 0.4151299298, 0.3602188528, 0.2226463258, -0.0229665525, 0.5658639073, 0.6346792579, 0.2794020772, -0.0755587742, 0.5399220586, 0.3546839952, 0.4271258712, 0.1046313792, 0.0014279542, 0.0161909685, 0.0036101236, -0.0205333252, -0.2159492075, 0.5961731076, 0.8950748444, -0.4250487983, -0.1818583459, 0.2782342434, -0.1480514854, -0.2316347659, 0.5588549376, 0.4471199512, 0.1381826699, -0.0443547554, -0.0028435180, 0.3168108761, 0.1324666440, 0.2464520335, 0.0239218157, -0.1702235788, 0.1684686542, -0.1148183420, -0.0889682099, -0.3923083544, 0.0189545937, 0.2214364707, 0.4471405149, -0.1027280465, -0.2099425644, 0.2889873683, 0.4645838141, 0.0992650688, -0.5909190178, 0.4494839311, 0.7193467617, 0.1816800386, -0.5104377866, 0.4776316285, 0.7069508433, 0.1659449637, -0.1296420246, -0.1047910154, 0.1839128882, 0.0244685765, 0.0675453991, 0.0105934022, 0.0530794971, 0.2145981938, -0.1756190658, -0.0934777930, 0.4000324011, -0.1093289107, -0.5919663906, -0.0903707072, 0.1391981989, -0.2766340375, 0.2588101029, -0.2807901800, -0.2706269026, 0.0380879380, 0.4343256652, 0.3871595263, -0.0653910190, -0.0523552336, -0.0034073454, 0.6602518559, 0.6236135364, 0.3008256853, 0.0021450822, -0.0832906365, -0.2129616439, -0.2902940512, -0.0012176147, 0.3029051721, 0.5730556846, -0.5000104308, -0.2894172072, -0.7935553789, 0.2077463865, 0.6390855908, -0.0200492982, 0.0103056347, -0.6514902115, 0.4124190509, 0.5197414756, 0.1012721136, -0.3423291147, 0.3613566458, 0.7433969378, 0.3520920873, -0.3217686117, -0.1516383737, -0.1213631034, -0.2688884437, 0.2415701598, -0.4849854708, -0.5433902740, -0.2820842862, -0.0083120596, 0.1606783867, -0.2420431674, -0.0189120714, 0.1918874681, -0.2047279924, 0.1024721041, 0.8312918544, 0.0446339995, -0.1210064813, 0.2189766169, 0.2533300519, 0.5549042225, 0.8348841667, 0.3972980380, 0.4930016696, 0.5619694591, -0.3678354621, -0.2896718085, -0.0330226012, 0.0054994388, 0.0737629235, 0.0083299624, 0.0643722117, -0.2391646057, 0.2850625515, 0.0014773314, 0.0822095200, 0.0295913443, 0.1356934011, 0.5453519821, -0.2603754699, 0.3158532977, -0.0684728399, 0.1542989165, 0.7993885875, -0.1654213667, -0.0792455897, -0.0433171093, 0.3907802403, -0.2070487589, -1.1127667427, -0.3003427386, -0.4065961540, -0.5222619176, -0.2405969650, -0.4433467090, 0.7276343703, 0.2958705127, -0.0850770101, -0.2191532254, 0.3856499493, 0.1654133797, 0.2761246264, -0.1285059005, 0.2520378530, -0.0036709469, 0.2147857994, 0.3027783036, 0.7327703834, 0.2542386055, 0.0695917979, -0.2454248667, 0.0252441708, 0.2665276527, 0.0318978280, 0.0639513656, -0.0552588180, -0.2862491906, -0.1784759611, 0.0190207623, 0.1900657415, 0.1030344740, 0.3624883294, 0.2013118118, 0.1440377831, -0.2170973867, 0.1196618751, -0.0384044982, 0.3935997486, 0.4623497725, 0.6738153100, 0.0538139530, 0.5631639361, 0.0382567681, 0.1133731753, 0.1927982122, -0.2539088428, -0.1985404491, -0.3837449551, 0.1712560952, 0.3318521082, -0.2540934384, -0.3740864694, -0.0066978969, 0.0006975470, 0.1000065878};

#endif

#endif
